digraph Tree {
node [shape=box, style="filled, rounded", color="black", fontname="helvetica"] ;
edge [fontname="helvetica"] ;
0 [label="Sex_female <= 0.5\ngini = 0.47\nsamples = 569\nvalue = [357, 212]", fillcolor="#f4ccaf"] ;
1 [label="Age <= 6.5\ngini = 0.31\nsamples = 376\nvalue = [304, 72]", fillcolor="#eb9f68"] ;
0 -> 1 [labeldistance=2.5, labelangle=45, headlabel="True"] ;
2 [label="SibSp <= 2.5\ngini = 0.35\nsamples = 18\nvalue = [4, 14]", fillcolor="#72b9ec"] ;
1 -> 2 ;
3 [label="gini = 0.0\nsamples = 13\nvalue = [0, 13]", fillcolor="#399de5"] ;
2 -> 3 ;
4 [label="Age <= 2.5\ngini = 0.32\nsamples = 5\nvalue = [4, 1]", fillcolor="#eca06a"] ;
2 -> 4 ;
5 [label="gini = 0.0\nsamples = 3\nvalue = [3, 0]", fillcolor="#e58139"] ;
4 -> 5 ;
6 [label="Age <= 3.5\ngini = 0.5\nsamples = 2\nvalue = [1, 1]", fillcolor="#ffffff"] ;
4 -> 6 ;
7 [label="gini = 0.0\nsamples = 1\nvalue = [0, 1]", fillcolor="#399de5"] ;
6 -> 7 ;
8 [label="gini = 0.0\nsamples = 1\nvalue = [1, 0]", fillcolor="#e58139"] ;
6 -> 8 ;
9 [label="Pclass <= 1.5\ngini = 0.27\nsamples = 358\nvalue = [300, 58]", fillcolor="#ea995f"] ;
1 -> 9 ;
10 [label="Fare <= 387.66\ngini = 0.46\nsamples = 71\nvalue = [45, 26]", fillcolor="#f4caab"] ;
9 -> 10 ;
11 [label="Fare <= 143.56\ngini = 0.45\nsamples = 69\nvalue = [45, 24]", fillcolor="#f3c4a3"] ;
10 -> 11 ;
12 [label="Age <= 27.5\ngini = 0.47\nsamples = 64\nvalue = [40, 24]", fillcolor="#f5cdb0"] ;
11 -> 12 ;
13 [label="Age <= 23.0\ngini = 0.41\nsamples = 7\nvalue = [2, 5]", fillcolor="#88c4ef"] ;
12 -> 13 ;
14 [label="Parch <= 1.5\ngini = 0.44\nsamples = 3\nvalue = [2, 1]", fillcolor="#f2c09c"] ;
13 -> 14 ;
15 [label="gini = 0.0\nsamples = 2\nvalue = [2, 0]", fillcolor="#e58139"] ;
14 -> 15 ;
16 [label="gini = 0.0\nsamples = 1\nvalue = [0, 1]", fillcolor="#399de5"] ;
14 -> 16 ;
17 [label="gini = 0.0\nsamples = 4\nvalue = [0, 4]", fillcolor="#399de5"] ;
13 -> 17 ;
18 [label="Fare <= 115.44\ngini = 0.44\nsamples = 57\nvalue = [38, 19]", fillcolor="#f2c09c"] ;
12 -> 18 ;
19 [label="Age <= 75.0\ngini = 0.43\nsamples = 55\nvalue = [38, 17]", fillcolor="#f1b992"] ;
18 -> 19 ;
20 [label="Fare <= 26.14\ngini = 0.42\nsamples = 54\nvalue = [38, 16]", fillcolor="#f0b68c"] ;
19 -> 20 ;
21 [label="gini = 0.0\nsamples = 4\nvalue = [4, 0]", fillcolor="#e58139"] ;
20 -> 21 ;
22 [label="Fare <= 26.42\ngini = 0.44\nsamples = 50\nvalue = [34, 16]", fillcolor="#f1bc96"] ;
20 -> 22 ;
23 [label="gini = 0.0\nsamples = 2\nvalue = [0, 2]", fillcolor="#399de5"] ;
22 -> 23 ;
24 [label="Age <= 61.0\ngini = 0.41\nsamples = 48\nvalue = [34, 14]", fillcolor="#f0b58b"] ;
22 -> 24 ;
25 [label="Fare <= 27.14\ngini = 0.43\nsamples = 45\nvalue = [31, 14]", fillcolor="#f1ba92"] ;
24 -> 25 ;
26 [label="Age <= 53.5\ngini = 0.49\nsamples = 7\nvalue = [3, 4]", fillcolor="#cee6f8"] ;
25 -> 26 ;
27 [label="gini = 0.0\nsamples = 4\nvalue = [0, 4]", fillcolor="#399de5"] ;
26 -> 27 ;
28 [label="gini = 0.0\nsamples = 3\nvalue = [3, 0]", fillcolor="#e58139"] ;
26 -> 28 ;
29 [label="Age <= 59.0\ngini = 0.39\nsamples = 38\nvalue = [28, 10]", fillcolor="#eeae80"] ;
25 -> 29 ;
30 [label="Age <= 30.5\ngini = 0.37\nsamples = 37\nvalue = [28, 9]", fillcolor="#edaa79"] ;
29 -> 30 ;
31 [label="gini = 0.0\nsamples = 5\nvalue = [5, 0]", fillcolor="#e58139"] ;
30 -> 31 ;
32 [label="Age <= 41.0\ngini = 0.4\nsamples = 32\nvalue = [23, 9]", fillcolor="#efb286"] ;
30 -> 32 ;
33 [label="Fare <= 52.28\ngini = 0.47\nsamples = 16\nvalue = [10, 6]", fillcolor="#f5cdb0"] ;
32 -> 33 ;
34 [label="Fare <= 37.55\ngini = 0.38\nsamples = 12\nvalue = [9, 3]", fillcolor="#eeab7b"] ;
33 -> 34 ;
35 [label="Fare <= 28.71\ngini = 0.49\nsamples = 7\nvalue = [4, 3]", fillcolor="#f8e0ce"] ;
34 -> 35 ;
36 [label="gini = 0.0\nsamples = 2\nvalue = [2, 0]", fillcolor="#e58139"] ;
35 -> 36 ;
37 [label="Parch <= 0.5\ngini = 0.48\nsamples = 5\nvalue = [2, 3]", fillcolor="#bddef6"] ;
35 -> 37 ;
38 [label="Fare <= 32.5\ngini = 0.38\nsamples = 4\nvalue = [1, 3]", fillcolor="#7bbeee"] ;
37 -> 38 ;
39 [label="gini = 0.0\nsamples = 2\nvalue = [0, 2]", fillcolor="#399de5"] ;
38 -> 39 ;
40 [label="Fare <= 35.25\ngini = 0.5\nsamples = 2\nvalue = [1, 1]", fillcolor="#ffffff"] ;
38 -> 40 ;
41 [label="gini = 0.0\nsamples = 1\nvalue = [1, 0]", fillcolor="#e58139"] ;
40 -> 41 ;
42 [label="gini = 0.0\nsamples = 1\nvalue = [0, 1]", fillcolor="#399de5"] ;
40 -> 42 ;
43 [label="gini = 0.0\nsamples = 1\nvalue = [1, 0]", fillcolor="#e58139"] ;
37 -> 43 ;
44 [label="gini = 0.0\nsamples = 5\nvalue = [5, 0]", fillcolor="#e58139"] ;
34 -> 44 ;
45 [label="Age <= 36.5\ngini = 0.38\nsamples = 4\nvalue = [1, 3]", fillcolor="#7bbeee"] ;
33 -> 45 ;
46 [label="Fare <= 67.92\ngini = 0.5\nsamples = 2\nvalue = [1, 1]", fillcolor="#ffffff"] ;
45 -> 46 ;
47 [label="gini = 0.0\nsamples = 1\nvalue = [0, 1]", fillcolor="#399de5"] ;
46 -> 47 ;
48 [label="gini = 0.0\nsamples = 1\nvalue = [1, 0]", fillcolor="#e58139"] ;
46 -> 48 ;
49 [label="gini = 0.0\nsamples = 2\nvalue = [0, 2]", fillcolor="#399de5"] ;
45 -> 49 ;
50 [label="Embarked_C <= 0.5\ngini = 0.3\nsamples = 16\nvalue = [13, 3]", fillcolor="#eb9e67"] ;
32 -> 50 ;
51 [label="gini = 0.0\nsamples = 9\nvalue = [9, 0]", fillcolor="#e58139"] ;
50 -> 51 ;
52 [label="Parch <= 0.5\ngini = 0.49\nsamples = 7\nvalue = [4, 3]", fillcolor="#f8e0ce"] ;
50 -> 52 ;
53 [label="Age <= 49.5\ngini = 0.48\nsamples = 5\nvalue = [2, 3]", fillcolor="#bddef6"] ;
52 -> 53 ;
54 [label="gini = 0.0\nsamples = 2\nvalue = [0, 2]", fillcolor="#399de5"] ;
53 -> 54 ;
55 [label="SibSp <= 0.5\ngini = 0.44\nsamples = 3\nvalue = [2, 1]", fillcolor="#f2c09c"] ;
53 -> 55 ;
56 [label="Age <= 57.0\ngini = 0.5\nsamples = 2\nvalue = [1, 1]", fillcolor="#ffffff"] ;
55 -> 56 ;
57 [label="gini = 0.0\nsamples = 1\nvalue = [0, 1]", fillcolor="#399de5"] ;
56 -> 57 ;
58 [label="gini = 0.0\nsamples = 1\nvalue = [1, 0]", fillcolor="#e58139"] ;
56 -> 58 ;
59 [label="gini = 0.0\nsamples = 1\nvalue = [1, 0]", fillcolor="#e58139"] ;
55 -> 59 ;
60 [label="gini = 0.0\nsamples = 2\nvalue = [2, 0]", fillcolor="#e58139"] ;
52 -> 60 ;
61 [label="gini = 0.0\nsamples = 1\nvalue = [0, 1]", fillcolor="#399de5"] ;
29 -> 61 ;
62 [label="gini = 0.0\nsamples = 3\nvalue = [3, 0]", fillcolor="#e58139"] ;
24 -> 62 ;
63 [label="gini = 0.0\nsamples = 1\nvalue = [0, 1]", fillcolor="#399de5"] ;
19 -> 63 ;
64 [label="gini = 0.0\nsamples = 2\nvalue = [0, 2]", fillcolor="#399de5"] ;
18 -> 64 ;
65 [label="gini = 0.0\nsamples = 5\nvalue = [5, 0]", fillcolor="#e58139"] ;
11 -> 65 ;
66 [label="gini = 0.0\nsamples = 2\nvalue = [0, 2]", fillcolor="#399de5"] ;
10 -> 66 ;
67 [label="Age <= 32.25\ngini = 0.2\nsamples = 287\nvalue = [255, 32]", fillcolor="#e89152"] ;
9 -> 67 ;
68 [label="Age <= 31.5\ngini = 0.26\nsamples = 153\nvalue = [129, 24]", fillcolor="#ea985e"] ;
67 -> 68 ;
69 [label="Embarked_C <= 0.5\ngini = 0.22\nsamples = 141\nvalue = [123, 18]", fillcolor="#e99356"] ;
68 -> 69 ;
70 [label="Fare <= 51.7\ngini = 0.17\nsamples = 125\nvalue = [113, 12]", fillcolor="#e88e4e"] ;
69 -> 70 ;
71 [label="Fare <= 11.0\ngini = 0.16\nsamples = 122\nvalue = [111, 11]", fillcolor="#e88d4d"] ;
70 -> 71 ;
72 [label="Age <= 28.5\ngini = 0.21\nsamples = 83\nvalue = [73, 10]", fillcolor="#e99254"] ;
71 -> 72 ;
73 [label="SibSp <= 0.5\ngini = 0.18\nsamples = 71\nvalue = [64.0, 7.0]", fillcolor="#e88f4f"] ;
72 -> 73 ;
74 [label="Age <= 19.5\ngini = 0.15\nsamples = 63\nvalue = [58, 5]", fillcolor="#e78c4a"] ;
73 -> 74 ;
75 [label="Fare <= 7.97\ngini = 0.26\nsamples = 20\nvalue = [17, 3]", fillcolor="#ea975c"] ;
74 -> 75 ;
76 [label="gini = 0.0\nsamples = 9\nvalue = [9, 0]", fillcolor="#e58139"] ;
75 -> 76 ;
77 [label="Fare <= 8.36\ngini = 0.4\nsamples = 11\nvalue = [8, 3]", fillcolor="#efb083"] ;
75 -> 77 ;
78 [label="Age <= 17.5\ngini = 0.5\nsamples = 4\nvalue = [2, 2]", fillcolor="#ffffff"] ;
77 -> 78 ;
79 [label="gini = 0.5\nsamples = 2\nvalue = [1, 1]", fillcolor="#ffffff"] ;
78 -> 79 ;
80 [label="gini = 0.5\nsamples = 2\nvalue = [1, 1]", fillcolor="#ffffff"] ;
78 -> 80 ;
81 [label="Pclass <= 2.5\ngini = 0.24\nsamples = 7\nvalue = [6, 1]", fillcolor="#e9965a"] ;
77 -> 81 ;
82 [label="gini = 0.5\nsamples = 2\nvalue = [1, 1]", fillcolor="#ffffff"] ;
81 -> 82 ;
83 [label="gini = 0.0\nsamples = 5\nvalue = [5, 0]", fillcolor="#e58139"] ;
81 -> 83 ;
84 [label="Fare <= 7.8\ngini = 0.09\nsamples = 43\nvalue = [41, 2]", fillcolor="#e68743"] ;
74 -> 84 ;
85 [label="Age <= 26.5\ngini = 0.24\nsamples = 14\nvalue = [12, 2]", fillcolor="#e9965a"] ;
84 -> 85 ;
86 [label="Fare <= 7.2\ngini = 0.15\nsamples = 12\nvalue = [11, 1]", fillcolor="#e78c4b"] ;
85 -> 86 ;
87 [label="Fare <= 7.13\ngini = 0.38\nsamples = 4\nvalue = [3, 1]", fillcolor="#eeab7b"] ;
86 -> 87 ;
88 [label="gini = 0.0\nsamples = 3\nvalue = [3, 0]", fillcolor="#e58139"] ;
87 -> 88 ;
89 [label="gini = 0.0\nsamples = 1\nvalue = [0, 1]", fillcolor="#399de5"] ;
87 -> 89 ;
90 [label="gini = 0.0\nsamples = 8\nvalue = [8, 0]", fillcolor="#e58139"] ;
86 -> 90 ;
91 [label="Age <= 27.5\ngini = 0.5\nsamples = 2\nvalue = [1, 1]", fillcolor="#ffffff"] ;
85 -> 91 ;
92 [label="gini = 0.0\nsamples = 1\nvalue = [0, 1]", fillcolor="#399de5"] ;
91 -> 92 ;
93 [label="gini = 0.0\nsamples = 1\nvalue = [1, 0]", fillcolor="#e58139"] ;
91 -> 93 ;
94 [label="gini = 0.0\nsamples = 29\nvalue = [29, 0]", fillcolor="#e58139"] ;
84 -> 94 ;
95 [label="Fare <= 7.51\ngini = 0.38\nsamples = 8\nvalue = [6, 2]", fillcolor="#eeab7b"] ;
73 -> 95 ;
96 [label="gini = 0.0\nsamples = 3\nvalue = [3, 0]", fillcolor="#e58139"] ;
95 -> 96 ;
97 [label="Age <= 25.5\ngini = 0.48\nsamples = 5\nvalue = [3, 2]", fillcolor="#f6d5bd"] ;
95 -> 97 ;
98 [label="Parch <= 0.5\ngini = 0.44\nsamples = 3\nvalue = [1, 2]", fillcolor="#9ccef2"] ;
97 -> 98 ;
99 [label="gini = 0.0\nsamples = 2\nvalue = [0, 2]", fillcolor="#399de5"] ;
98 -> 99 ;
100 [label="gini = 0.0\nsamples = 1\nvalue = [1, 0]", fillcolor="#e58139"] ;
98 -> 100 ;
101 [label="gini = 0.0\nsamples = 2\nvalue = [2, 0]", fillcolor="#e58139"] ;
97 -> 101 ;
102 [label="Fare <= 7.99\ngini = 0.38\nsamples = 12\nvalue = [9, 3]", fillcolor="#eeab7b"] ;
72 -> 102 ;
103 [label="Fare <= 7.85\ngini = 0.48\nsamples = 5\nvalue = [3, 2]", fillcolor="#f6d5bd"] ;
102 -> 103 ;
104 [label="Age <= 29.5\ngini = 0.38\nsamples = 4\nvalue = [3, 1]", fillcolor="#eeab7b"] ;
103 -> 104 ;
105 [label="gini = 0.0\nsamples = 1\nvalue = [0, 1]", fillcolor="#399de5"] ;
104 -> 105 ;
106 [label="gini = 0.0\nsamples = 3\nvalue = [3, 0]", fillcolor="#e58139"] ;
104 -> 106 ;
107 [label="gini = 0.0\nsamples = 1\nvalue = [0, 1]", fillcolor="#399de5"] ;
103 -> 107 ;
108 [label="Fare <= 9.49\ngini = 0.24\nsamples = 7\nvalue = [6, 1]", fillcolor="#e9965a"] ;
102 -> 108 ;
109 [label="gini = 0.0\nsamples = 4\nvalue = [4, 0]", fillcolor="#e58139"] ;
108 -> 109 ;
110 [label="Pclass <= 2.5\ngini = 0.44\nsamples = 3\nvalue = [2, 1]", fillcolor="#f2c09c"] ;
108 -> 110 ;
111 [label="gini = 0.0\nsamples = 2\nvalue = [2, 0]", fillcolor="#e58139"] ;
110 -> 111 ;
112 [label="gini = 0.0\nsamples = 1\nvalue = [0, 1]", fillcolor="#399de5"] ;
110 -> 112 ;
113 [label="Age <= 8.5\ngini = 0.05\nsamples = 39\nvalue = [38, 1]", fillcolor="#e6843e"] ;
71 -> 113 ;
114 [label="Pclass <= 2.5\ngini = 0.38\nsamples = 4\nvalue = [3, 1]", fillcolor="#eeab7b"] ;
113 -> 114 ;
115 [label="gini = 0.0\nsamples = 1\nvalue = [0, 1]", fillcolor="#399de5"] ;
114 -> 115 ;
116 [label="gini = 0.0\nsamples = 3\nvalue = [3, 0]", fillcolor="#e58139"] ;
114 -> 116 ;
117 [label="gini = 0.0\nsamples = 35\nvalue = [35, 0]", fillcolor="#e58139"] ;
113 -> 117 ;
118 [label="Fare <= 65.0\ngini = 0.44\nsamples = 3\nvalue = [2, 1]", fillcolor="#f2c09c"] ;
70 -> 118 ;
119 [label="gini = 0.0\nsamples = 1\nvalue = [0, 1]", fillcolor="#399de5"] ;
118 -> 119 ;
120 [label="gini = 0.0\nsamples = 2\nvalue = [2, 0]", fillcolor="#e58139"] ;
118 -> 120 ;
121 [label="Pclass <= 2.5\ngini = 0.47\nsamples = 16\nvalue = [10, 6]", fillcolor="#f5cdb0"] ;
69 -> 121 ;
122 [label="gini = 0.0\nsamples = 3\nvalue = [3, 0]", fillcolor="#e58139"] ;
121 -> 122 ;
123 [label="Fare <= 7.56\ngini = 0.5\nsamples = 13\nvalue = [7, 6]", fillcolor="#fbede3"] ;
121 -> 123 ;
124 [label="Age <= 23.5\ngini = 0.41\nsamples = 7\nvalue = [5, 2]", fillcolor="#efb388"] ;
123 -> 124 ;
125 [label="Fare <= 7.23\ngini = 0.5\nsamples = 4\nvalue = [2, 2]", fillcolor="#ffffff"] ;
124 -> 125 ;
126 [label="gini = 0.0\nsamples = 1\nvalue = [0, 1]", fillcolor="#399de5"] ;
125 -> 126 ;
127 [label="Parch <= 0.5\ngini = 0.44\nsamples = 3\nvalue = [2, 1]", fillcolor="#f2c09c"] ;
125 -> 127 ;
128 [label="Age <= 21.0\ngini = 0.5\nsamples = 2\nvalue = [1, 1]", fillcolor="#ffffff"] ;
127 -> 128 ;
129 [label="gini = 0.0\nsamples = 1\nvalue = [0, 1]", fillcolor="#399de5"] ;
128 -> 129 ;
130 [label="gini = 0.0\nsamples = 1\nvalue = [1, 0]", fillcolor="#e58139"] ;
128 -> 130 ;
131 [label="gini = 0.0\nsamples = 1\nvalue = [1, 0]", fillcolor="#e58139"] ;
127 -> 131 ;
132 [label="gini = 0.0\nsamples = 3\nvalue = [3, 0]", fillcolor="#e58139"] ;
124 -> 132 ;
133 [label="Age <= 11.5\ngini = 0.44\nsamples = 6\nvalue = [2, 4]", fillcolor="#9ccef2"] ;
123 -> 133 ;
134 [label="gini = 0.0\nsamples = 1\nvalue = [1, 0]", fillcolor="#e58139"] ;
133 -> 134 ;
135 [label="Fare <= 12.85\ngini = 0.32\nsamples = 5\nvalue = [1, 4]", fillcolor="#6ab6ec"] ;
133 -> 135 ;
136 [label="gini = 0.0\nsamples = 2\nvalue = [0, 2]", fillcolor="#399de5"] ;
135 -> 136 ;
137 [label="Fare <= 15.1\ngini = 0.44\nsamples = 3\nvalue = [1, 2]", fillcolor="#9ccef2"] ;
135 -> 137 ;
138 [label="gini = 0.0\nsamples = 1\nvalue = [1, 0]", fillcolor="#e58139"] ;
137 -> 138 ;
139 [label="gini = 0.0\nsamples = 2\nvalue = [0, 2]", fillcolor="#399de5"] ;
137 -> 139 ;
140 [label="Fare <= 20.93\ngini = 0.5\nsamples = 12\nvalue = [6, 6]", fillcolor="#ffffff"] ;
68 -> 140 ;
141 [label="Fare <= 8.21\ngini = 0.47\nsamples = 8\nvalue = [5, 3]", fillcolor="#f5cdb0"] ;
140 -> 141 ;
142 [label="Embarked_Q <= 0.5\ngini = 0.5\nsamples = 6\nvalue = [3, 3]", fillcolor="#ffffff"] ;
141 -> 142 ;
143 [label="Fare <= 7.88\ngini = 0.48\nsamples = 5\nvalue = [2, 3]", fillcolor="#bddef6"] ;
142 -> 143 ;
144 [label="gini = 0.0\nsamples = 1\nvalue = [0, 1]", fillcolor="#399de5"] ;
143 -> 144 ;
145 [label="Fare <= 7.91\ngini = 0.5\nsamples = 4\nvalue = [2, 2]", fillcolor="#ffffff"] ;
143 -> 145 ;
146 [label="gini = 0.0\nsamples = 1\nvalue = [1, 0]", fillcolor="#e58139"] ;
145 -> 146 ;
147 [label="Fare <= 7.99\ngini = 0.44\nsamples = 3\nvalue = [1, 2]", fillcolor="#9ccef2"] ;
145 -> 147 ;
148 [label="gini = 0.5\nsamples = 2\nvalue = [1, 1]", fillcolor="#ffffff"] ;
147 -> 148 ;
149 [label="gini = 0.0\nsamples = 1\nvalue = [0, 1]", fillcolor="#399de5"] ;
147 -> 149 ;
150 [label="gini = 0.0\nsamples = 1\nvalue = [1, 0]", fillcolor="#e58139"] ;
142 -> 150 ;
151 [label="gini = 0.0\nsamples = 2\nvalue = [2, 0]", fillcolor="#e58139"] ;
141 -> 151 ;
152 [label="SibSp <= 1.5\ngini = 0.38\nsamples = 4\nvalue = [1, 3]", fillcolor="#7bbeee"] ;
140 -> 152 ;
153 [label="gini = 0.0\nsamples = 3\nvalue = [0, 3]", fillcolor="#399de5"] ;
152 -> 153 ;
154 [label="gini = 0.0\nsamples = 1\nvalue = [1, 0]", fillcolor="#e58139"] ;
152 -> 154 ;
155 [label="Age <= 61.5\ngini = 0.11\nsamples = 134\nvalue = [126, 8]", fillcolor="#e78946"] ;
67 -> 155 ;
156 [label="Fare <= 7.91\ngini = 0.1\nsamples = 131\nvalue = [124, 7]", fillcolor="#e68844"] ;
155 -> 156 ;
157 [label="Embarked_Q <= 0.5\ngini = 0.04\nsamples = 55\nvalue = [54, 1]", fillcolor="#e5833d"] ;
156 -> 157 ;
158 [label="gini = 0.0\nsamples = 42\nvalue = [42, 0]", fillcolor="#e58139"] ;
157 -> 158 ;
159 [label="Fare <= 7.74\ngini = 0.14\nsamples = 13\nvalue = [12, 1]", fillcolor="#e78c49"] ;
157 -> 159 ;
160 [label="gini = 0.0\nsamples = 4\nvalue = [4, 0]", fillcolor="#e58139"] ;
159 -> 160 ;
161 [label="SibSp <= 0.5\ngini = 0.2\nsamples = 9\nvalue = [8, 1]", fillcolor="#e89152"] ;
159 -> 161 ;
162 [label="gini = 0.22\nsamples = 8\nvalue = [7, 1]", fillcolor="#e99355"] ;
161 -> 162 ;
163 [label="gini = 0.0\nsamples = 1\nvalue = [1, 0]", fillcolor="#e58139"] ;
161 -> 163 ;
164 [label="Fare <= 7.99\ngini = 0.15\nsamples = 76\nvalue = [70, 6]", fillcolor="#e78c4a"] ;
156 -> 164 ;
165 [label="Age <= 38.0\ngini = 0.5\nsamples = 4\nvalue = [2, 2]", fillcolor="#ffffff"] ;
164 -> 165 ;
166 [label="gini = 0.0\nsamples = 1\nvalue = [1, 0]", fillcolor="#e58139"] ;
165 -> 166 ;
167 [label="Age <= 41.5\ngini = 0.44\nsamples = 3\nvalue = [1, 2]", fillcolor="#9ccef2"] ;
165 -> 167 ;
168 [label="gini = 0.5\nsamples = 2\nvalue = [1, 1]", fillcolor="#ffffff"] ;
167 -> 168 ;
169 [label="gini = 0.0\nsamples = 1\nvalue = [0, 1]", fillcolor="#399de5"] ;
167 -> 169 ;
170 [label="Age <= 41.5\ngini = 0.1\nsamples = 72\nvalue = [68, 4]", fillcolor="#e78845"] ;
164 -> 170 ;
171 [label="Age <= inf\ngini = 0.07\nsamples = 26\nvalue = [25, 1]", fillcolor="#e68641"] ;
170 -> 171 ;
172 [label="gini = 0.0\nsamples = 25\nvalue = [25, 0]", fillcolor="#e58139"] ;
171 -> 172 ;
173 [label="gini = 0.0\nsamples = 1\nvalue = [0, 1]", fillcolor="#399de5"] ;
171 -> 173 ;
174 [label="Fare <= 22.46\ngini = 0.12\nsamples = 46\nvalue = [43, 3]", fillcolor="#e78a47"] ;
170 -> 174 ;
175 [label="Age <= 43.0\ngini = 0.06\nsamples = 32\nvalue = [31, 1]", fillcolor="#e6853f"] ;
174 -> 175 ;
176 [label="Pclass <= 2.5\ngini = 0.38\nsamples = 4\nvalue = [3, 1]", fillcolor="#eeab7b"] ;
175 -> 176 ;
177 [label="gini = 0.0\nsamples = 1\nvalue = [0, 1]", fillcolor="#399de5"] ;
176 -> 177 ;
178 [label="gini = 0.0\nsamples = 3\nvalue = [3, 0]", fillcolor="#e58139"] ;
176 -> 178 ;
179 [label="gini = 0.0\nsamples = 28\nvalue = [28, 0]", fillcolor="#e58139"] ;
175 -> 179 ;
180 [label="Fare <= 23.7\ngini = 0.24\nsamples = 14\nvalue = [12, 2]", fillcolor="#e9965a"] ;
174 -> 180 ;
181 [label="gini = 0.0\nsamples = 1\nvalue = [0, 1]", fillcolor="#399de5"] ;
180 -> 181 ;
182 [label="SibSp <= 0.5\ngini = 0.14\nsamples = 13\nvalue = [12, 1]", fillcolor="#e78c49"] ;
180 -> 182 ;
183 [label="Fare <= 41.25\ngini = 0.38\nsamples = 4\nvalue = [3, 1]", fillcolor="#eeab7b"] ;
182 -> 183 ;
184 [label="gini = 0.0\nsamples = 2\nvalue = [2, 0]", fillcolor="#e58139"] ;
183 -> 184 ;
185 [label="gini = 0.5\nsamples = 2\nvalue = [1, 1]", fillcolor="#ffffff"] ;
183 -> 185 ;
186 [label="gini = 0.0\nsamples = 9\nvalue = [9, 0]", fillcolor="#e58139"] ;
182 -> 186 ;
187 [label="Age <= 66.0\ngini = 0.44\nsamples = 3\nvalue = [2, 1]", fillcolor="#f2c09c"] ;
155 -> 187 ;
188 [label="gini = 0.0\nsamples = 1\nvalue = [0, 1]", fillcolor="#399de5"] ;
187 -> 188 ;
189 [label="gini = 0.0\nsamples = 2\nvalue = [2, 0]", fillcolor="#e58139"] ;
187 -> 189 ;
190 [label="Pclass <= 2.5\ngini = 0.4\nsamples = 193\nvalue = [53.0, 140.0]", fillcolor="#84c2ef"] ;
0 -> 190 [labeldistance=2.5, labelangle=-45, headlabel="False"] ;
191 [label="Age <= 3.0\ngini = 0.08\nsamples = 96\nvalue = [4, 92]", fillcolor="#42a1e6"] ;
190 -> 191 ;
192 [label="Parch <= 1.5\ngini = 0.5\nsamples = 2\nvalue = [1, 1]", fillcolor="#ffffff"] ;
191 -> 192 ;
193 [label="gini = 0.0\nsamples = 1\nvalue = [0, 1]", fillcolor="#399de5"] ;
192 -> 193 ;
194 [label="gini = 0.0\nsamples = 1\nvalue = [1, 0]", fillcolor="#e58139"] ;
192 -> 194 ;
195 [label="Age <= 26.0\ngini = 0.06\nsamples = 94\nvalue = [3.0, 91.0]", fillcolor="#40a0e6"] ;
191 -> 195 ;
196 [label="Age <= 24.5\ngini = 0.13\nsamples = 29\nvalue = [2, 27]", fillcolor="#48a4e7"] ;
195 -> 196 ;
197 [label="Fare <= 13.4\ngini = 0.07\nsamples = 27\nvalue = [1, 26]", fillcolor="#41a1e6"] ;
196 -> 197 ;
198 [label="gini = 0.5\nsamples = 2\nvalue = [1, 1]", fillcolor="#ffffff"] ;
197 -> 198 ;
199 [label="gini = 0.0\nsamples = 25\nvalue = [0, 25]", fillcolor="#399de5"] ;
197 -> 199 ;
200 [label="Pclass <= 1.5\ngini = 0.5\nsamples = 2\nvalue = [1, 1]", fillcolor="#ffffff"] ;
196 -> 200 ;
201 [label="gini = 0.0\nsamples = 1\nvalue = [1, 0]", fillcolor="#e58139"] ;
200 -> 201 ;
202 [label="gini = 0.0\nsamples = 1\nvalue = [0, 1]", fillcolor="#399de5"] ;
200 -> 202 ;
203 [label="Age <= 49.5\ngini = 0.03\nsamples = 65\nvalue = [1, 64]", fillcolor="#3c9fe5"] ;
195 -> 203 ;
204 [label="gini = 0.0\nsamples = 54\nvalue = [0, 54]", fillcolor="#399de5"] ;
203 -> 204 ;
205 [label="Age <= 51.5\ngini = 0.17\nsamples = 11\nvalue = [1, 10]", fillcolor="#4da7e8"] ;
203 -> 205 ;
206 [label="Parch <= 0.5\ngini = 0.5\nsamples = 2\nvalue = [1, 1]", fillcolor="#ffffff"] ;
205 -> 206 ;
207 [label="gini = 0.0\nsamples = 1\nvalue = [1, 0]", fillcolor="#e58139"] ;
206 -> 207 ;
208 [label="gini = 0.0\nsamples = 1\nvalue = [0, 1]", fillcolor="#399de5"] ;
206 -> 208 ;
209 [label="gini = 0.0\nsamples = 9\nvalue = [0, 9]", fillcolor="#399de5"] ;
205 -> 209 ;
210 [label="Fare <= 23.35\ngini = 0.5\nsamples = 97\nvalue = [49, 48]", fillcolor="#fefcfb"] ;
190 -> 210 ;
211 [label="Embarked_S <= 0.5\ngini = 0.48\nsamples = 78\nvalue = [31.0, 47.0]", fillcolor="#bcdef6"] ;
210 -> 211 ;
212 [label="Age <= 16.5\ngini = 0.38\nsamples = 31\nvalue = [8, 23]", fillcolor="#7ebfee"] ;
211 -> 212 ;
213 [label="Age <= inf\ngini = 0.27\nsamples = 25\nvalue = [4, 21]", fillcolor="#5fb0ea"] ;
212 -> 213 ;
214 [label="gini = 0.0\nsamples = 8\nvalue = [0, 8]", fillcolor="#399de5"] ;
213 -> 214 ;
215 [label="Fare <= 8.01\ngini = 0.36\nsamples = 17\nvalue = [4, 13]", fillcolor="#76bbed"] ;
213 -> 215 ;
216 [label="Fare <= 7.68\ngini = 0.18\nsamples = 10\nvalue = [1, 9]", fillcolor="#4fa8e8"] ;
215 -> 216 ;
217 [label="Embarked_C <= 0.5\ngini = 0.5\nsamples = 2\nvalue = [1, 1]", fillcolor="#ffffff"] ;
216 -> 217 ;
218 [label="gini = 0.0\nsamples = 1\nvalue = [1, 0]", fillcolor="#e58139"] ;
217 -> 218 ;
219 [label="gini = 0.0\nsamples = 1\nvalue = [0, 1]", fillcolor="#399de5"] ;
217 -> 219 ;
220 [label="gini = 0.0\nsamples = 8\nvalue = [0, 8]", fillcolor="#399de5"] ;
216 -> 220 ;
221 [label="Fare <= 15.37\ngini = 0.49\nsamples = 7\nvalue = [3, 4]", fillcolor="#cee6f8"] ;
215 -> 221 ;
222 [label="gini = 0.0\nsamples = 3\nvalue = [3, 0]", fillcolor="#e58139"] ;
221 -> 222 ;
223 [label="gini = 0.0\nsamples = 4\nvalue = [0, 4]", fillcolor="#399de5"] ;
221 -> 223 ;
224 [label="Age <= 21.5\ngini = 0.44\nsamples = 6\nvalue = [4, 2]", fillcolor="#f2c09c"] ;
212 -> 224 ;
225 [label="gini = 0.0\nsamples = 4\nvalue = [4, 0]", fillcolor="#e58139"] ;
224 -> 225 ;
226 [label="gini = 0.0\nsamples = 2\nvalue = [0, 2]", fillcolor="#399de5"] ;
224 -> 226 ;
227 [label="Parch <= 0.5\ngini = 0.5\nsamples = 47\nvalue = [23.0, 24.0]", fillcolor="#f7fbfe"] ;
211 -> 227 ;
228 [label="Fare <= 7.65\ngini = 0.49\nsamples = 33\nvalue = [19, 14]", fillcolor="#f8decb"] ;
227 -> 228 ;
229 [label="gini = 0.0\nsamples = 3\nvalue = [0, 3]", fillcolor="#399de5"] ;
228 -> 229 ;
230 [label="Age <= 25.5\ngini = 0.46\nsamples = 30\nvalue = [19, 11]", fillcolor="#f4caac"] ;
228 -> 230 ;
231 [label="Fare <= 9.84\ngini = 0.32\nsamples = 15\nvalue = [12, 3]", fillcolor="#eca06a"] ;
230 -> 231 ;
232 [label="gini = 0.0\nsamples = 11\nvalue = [11, 0]", fillcolor="#e58139"] ;
231 -> 232 ;
233 [label="Fare <= 17.05\ngini = 0.38\nsamples = 4\nvalue = [1, 3]", fillcolor="#7bbeee"] ;
231 -> 233 ;
234 [label="gini = 0.0\nsamples = 3\nvalue = [0, 3]", fillcolor="#399de5"] ;
233 -> 234 ;
235 [label="gini = 0.0\nsamples = 1\nvalue = [1, 0]", fillcolor="#e58139"] ;
233 -> 235 ;
236 [label="Age <= 38.0\ngini = 0.5\nsamples = 15\nvalue = [7, 8]", fillcolor="#e6f3fc"] ;
230 -> 236 ;
237 [label="Fare <= 17.7\ngini = 0.46\nsamples = 11\nvalue = [4, 7]", fillcolor="#aad5f4"] ;
236 -> 237 ;
238 [label="Age <= 30.5\ngini = 0.42\nsamples = 10\nvalue = [3, 7]", fillcolor="#8ec7f0"] ;
237 -> 238 ;
239 [label="Fare <= 14.29\ngini = 0.49\nsamples = 7\nvalue = [3, 4]", fillcolor="#cee6f8"] ;
238 -> 239 ;
240 [label="Age <= 27.5\ngini = 0.44\nsamples = 6\nvalue = [2, 4]", fillcolor="#9ccef2"] ;
239 -> 240 ;
241 [label="gini = 0.0\nsamples = 3\nvalue = [0, 3]", fillcolor="#399de5"] ;
240 -> 241 ;
242 [label="Fare <= 10.57\ngini = 0.44\nsamples = 3\nvalue = [2, 1]", fillcolor="#f2c09c"] ;
240 -> 242 ;
243 [label="gini = 0.0\nsamples = 2\nvalue = [2, 0]", fillcolor="#e58139"] ;
242 -> 243 ;
244 [label="gini = 0.0\nsamples = 1\nvalue = [0, 1]", fillcolor="#399de5"] ;
242 -> 244 ;
245 [label="gini = 0.0\nsamples = 1\nvalue = [1, 0]", fillcolor="#e58139"] ;
239 -> 245 ;
246 [label="gini = 0.0\nsamples = 3\nvalue = [0, 3]", fillcolor="#399de5"] ;
238 -> 246 ;
247 [label="gini = 0.0\nsamples = 1\nvalue = [1, 0]", fillcolor="#e58139"] ;
237 -> 247 ;
248 [label="Age <= 55.0\ngini = 0.38\nsamples = 4\nvalue = [3, 1]", fillcolor="#eeab7b"] ;
236 -> 248 ;
249 [label="gini = 0.0\nsamples = 3\nvalue = [3, 0]", fillcolor="#e58139"] ;
248 -> 249 ;
250 [label="gini = 0.0\nsamples = 1\nvalue = [0, 1]", fillcolor="#399de5"] ;
248 -> 250 ;
251 [label="Fare <= 20.8\ngini = 0.41\nsamples = 14\nvalue = [4, 10]", fillcolor="#88c4ef"] ;
227 -> 251 ;
252 [label="Age <= 9.5\ngini = 0.18\nsamples = 10\nvalue = [1, 9]", fillcolor="#4fa8e8"] ;
251 -> 252 ;
253 [label="Fare <= 10.8\ngini = 0.44\nsamples = 3\nvalue = [1, 2]", fillcolor="#9ccef2"] ;
252 -> 253 ;
254 [label="gini = 0.0\nsamples = 1\nvalue = [1, 0]", fillcolor="#e58139"] ;
253 -> 254 ;
255 [label="gini = 0.0\nsamples = 2\nvalue = [0, 2]", fillcolor="#399de5"] ;
253 -> 255 ;
256 [label="gini = 0.0\nsamples = 7\nvalue = [0, 7]", fillcolor="#399de5"] ;
252 -> 256 ;
257 [label="Fare <= 21.55\ngini = 0.38\nsamples = 4\nvalue = [3, 1]", fillcolor="#eeab7b"] ;
251 -> 257 ;
258 [label="gini = 0.0\nsamples = 3\nvalue = [3, 0]", fillcolor="#e58139"] ;
257 -> 258 ;
259 [label="gini = 0.0\nsamples = 1\nvalue = [0, 1]", fillcolor="#399de5"] ;
257 -> 259 ;
260 [label="Age <= 5.5\ngini = 0.1\nsamples = 19\nvalue = [18, 1]", fillcolor="#e68844"] ;
210 -> 260 ;
261 [label="Age <= 3.5\ngini = 0.44\nsamples = 3\nvalue = [2, 1]", fillcolor="#f2c09c"] ;
260 -> 261 ;
262 [label="gini = 0.0\nsamples = 2\nvalue = [2, 0]", fillcolor="#e58139"] ;
261 -> 262 ;
263 [label="gini = 0.0\nsamples = 1\nvalue = [0, 1]", fillcolor="#399de5"] ;
261 -> 263 ;
264 [label="gini = 0.0\nsamples = 16\nvalue = [16, 0]", fillcolor="#e58139"] ;
260 -> 264 ;
}